<?xml version="1.0"?>
<opencv_storage>
<cascade>
  <stageType>BOOST</stageType>
  <featureType>HAAR</featureType>
  <height>48</height>
  <width>24</width>
  <stageParams>
    <boostType>GAB</boostType>
    <minHitRate>9.9500000476837158e-01</minHitRate>
    <maxFalseAlarm>5.0000000000000000e-01</maxFalseAlarm>
    <weightTrimRate>9.4999999999999996e-01</weightTrimRate>
    <maxDepth>1</maxDepth>
    <maxWeakCount>100</maxWeakCount></stageParams>
  <featureParams>
    <maxCatCount>0</maxCatCount>
    <featSize>1</featSize>
    <mode>BASIC</mode></featureParams>
  <stageNum>10</stageNum>
  <stages>
    <!-- stage 0 -->
    <_>
      <maxWeakCount>2</maxWeakCount>
      <stageThreshold>-1.7021587491035461e-01</stageThreshold>
      <weakClassifiers>
        <_>
          <internalNodes>
            0 -1 1 -7.0510268211364746e-02</internalNodes>
          <leafValues>
            8.4070795774459839e-01 -9.9348533153533936e-01</leafValues></_>
        <_>
          <internalNodes>
            0 -1 16 -2.7016706764698029e-02</internalNodes>
          <leafValues>
            8.2326948642730713e-01 -9.7374504804611206e-01</leafValues></_></weakClassifiers></_>
    <!-- stage 1 -->
    <_>
      <maxWeakCount>2</maxWeakCount>
      <stageThreshold>-2.4329778552055359e-01</stageThreshold>
      <weakClassifiers>
        <_>
          <internalNodes>
            0 -1 13 1.5494095161557198e-02</internalNodes>
          <leafValues>
            -9.6699672937393188e-01 7.0940172672271729e-01</leafValues></_>
        <_>
          <internalNodes>
            0 -1 20 2.9291749000549316e-02</internalNodes>
          <leafValues>
            -9.5269948244094849e-01 8.2343608140945435e-01</leafValues></_></weakClassifiers></_>
    <!-- stage 2 -->
    <_>
      <maxWeakCount>3</maxWeakCount>
      <stageThreshold>-9.8942095041275024e-01</stageThreshold>
      <weakClassifiers>
        <_>
          <internalNodes>
            0 -1 0 -3.2469764351844788e-02</internalNodes>
          <leafValues>
            7.8640776872634888e-01 -9.1798108816146851e-01</leafValues></_>
        <_>
          <internalNodes>
            0 -1 10 4.5420043170452118e-03</internalNodes>
          <leafValues>
            -9.1298627853393555e-01 7.3616409301757812e-01</leafValues></_>
        <_>
          <internalNodes>
            0 -1 4 -6.7046016454696655e-02</internalNodes>
          <leafValues>
            9.4553977251052856e-01 -8.0760395526885986e-01</leafValues></_></weakClassifiers></_>
    <!-- stage 3 -->
    <_>
      <maxWeakCount>2</maxWeakCount>
      <stageThreshold>-3.8041967153549194e-01</stageThreshold>
      <weakClassifiers>
        <_>
          <internalNodes>
            0 -1 6 -1.3802479952573776e-02</internalNodes>
          <leafValues>
            6.5048545598983765e-01 -8.7381702661514282e-01</leafValues></_>
        <_>
          <internalNodes>
            0 -1 8 1.9066434353590012e-02</internalNodes>
          <leafValues>
            -1. 4.9339738488197327e-01</leafValues></_></weakClassifiers></_>
    <!-- stage 4 -->
    <_>
      <maxWeakCount>3</maxWeakCount>
      <stageThreshold>-1.2144072055816650e+00</stageThreshold>
      <weakClassifiers>
        <_>
          <internalNodes>
            0 -1 5 -8.6864996701478958e-03</internalNodes>
          <leafValues>
            4.4881889224052429e-01 -9.1126281023025513e-01</leafValues></_>
        <_>
          <internalNodes>
            0 -1 21 -5.8141835033893585e-03</internalNodes>
          <leafValues>
            5.7301425933837891e-01 -9.0817898511886597e-01</leafValues></_>
        <_>
          <internalNodes>
            0 -1 7 -1.2363691814243793e-02</internalNodes>
          <leafValues>
            6.5924489498138428e-01 -8.7615865468978882e-01</leafValues></_></weakClassifiers></_>
    <!-- stage 5 -->
    <_>
      <maxWeakCount>2</maxWeakCount>
      <stageThreshold>-1.7664571106433868e-01</stageThreshold>
      <weakClassifiers>
        <_>
          <internalNodes>
            0 -1 3 -6.9937974214553833e-02</internalNodes>
          <leafValues>
            7.5257730484008789e-01 -8.7616097927093506e-01</leafValues></_>
        <_>
          <internalNodes>
            0 -1 12 -8.6764041334390640e-03</internalNodes>
          <leafValues>
            6.9951528310775757e-01 -8.3154153823852539e-01</leafValues></_></weakClassifiers></_>
    <!-- stage 6 -->
    <_>
      <maxWeakCount>3</maxWeakCount>
      <stageThreshold>-9.7155594825744629e-01</stageThreshold>
      <weakClassifiers>
        <_>
          <internalNodes>
            0 -1 18 -1.4343094825744629e-01</internalNodes>
          <leafValues>
            7.5903612375259399e-01 -8.1008899211883545e-01</leafValues></_>
        <_>
          <internalNodes>
            0 -1 19 3.5222943406552076e-03</internalNodes>
          <leafValues>
            -8.6378902196884155e-01 4.8153194785118103e-01</leafValues></_>
        <_>
          <internalNodes>
            0 -1 9 -2.4456232786178589e-03</internalNodes>
          <leafValues>
            8.4011691808700562e-01 -6.4299887418746948e-01</leafValues></_></weakClassifiers></_>
    <!-- stage 7 -->
    <_>
      <maxWeakCount>2</maxWeakCount>
      <stageThreshold>-5.6406092643737793e-01</stageThreshold>
      <weakClassifiers>
        <_>
          <internalNodes>
            0 -1 17 -3.5713822580873966e-03</internalNodes>
          <leafValues>
            3.8582676649093628e-01 -8.8395905494689941e-01</leafValues></_>
        <_>
          <internalNodes>
            0 -1 15 2.2322293370962143e-03</internalNodes>
          <leafValues>
            -9.4988769292831421e-01 4.2768159508705139e-01</leafValues></_></weakClassifiers></_>
    <!-- stage 8 -->
    <_>
      <maxWeakCount>2</maxWeakCount>
      <stageThreshold>-7.3247629404067993e-01</stageThreshold>
      <weakClassifiers>
        <_>
          <internalNodes>
            0 -1 2 -1.5625270083546638e-02</internalNodes>
          <leafValues>
            1.5083798766136169e-01 -9.8340249061584473e-01</leafValues></_>
        <_>
          <internalNodes>
            0 -1 14 1.1197956278920174e-02</internalNodes>
          <leafValues>
            -8.8331431150436401e-01 3.7299540638923645e-01</leafValues></_></weakClassifiers></_>
    <!-- stage 9 -->
    <_>
      <maxWeakCount>2</maxWeakCount>
      <stageThreshold>-4.5585584640502930e-01</stageThreshold>
      <weakClassifiers>
        <_>
          <internalNodes>
            0 -1 22 1.4144695363938808e-02</internalNodes>
          <leafValues>
            -7.9692310094833374e-01 5.1578944921493530e-01</leafValues></_>
        <_>
          <internalNodes>
            0 -1 11 1.3631265610456467e-03</internalNodes>
          <leafValues>
            -9.7164529561996460e-01 4.3014088273048401e-01</leafValues></_></weakClassifiers></_></stages>
  <features>
    <_>
      <rects>
        <_>
          0 4 23 6 -1.</_>
        <_>
          0 7 23 3 2.</_></rects>
      <tilted>0</tilted></_>
    <_>
      <rects>
        <_>
          0 16 12 18 -1.</_>
        <_>
          4 16 4 18 3.</_></rects>
      <tilted>0</tilted></_>
    <_>
      <rects>
        <_>
          0 37 14 6 -1.</_>
        <_>
          7 37 7 6 2.</_></rects>
      <tilted>0</tilted></_>
    <_>
      <rects>
        <_>
          1 3 4 43 -1.</_>
        <_>
          3 3 2 43 2.</_></rects>
      <tilted>0</tilted></_>
    <_>
      <rects>
        <_>
          1 6 6 40 -1.</_>
        <_>
          3 6 2 40 3.</_></rects>
      <tilted>0</tilted></_>
    <_>
      <rects>
        <_>
          1 9 6 8 -1.</_>
        <_>
          3 9 2 8 3.</_></rects>
      <tilted>0</tilted></_>
    <_>
      <rects>
        <_>
          2 4 5 9 -1.</_>
        <_>
          2 7 5 3 3.</_></rects>
      <tilted>0</tilted></_>
    <_>
      <rects>
        <_>
          3 39 7 9 -1.</_>
        <_>
          3 42 7 3 3.</_></rects>
      <tilted>0</tilted></_>
    <_>
      <rects>
        <_>
          5 1 6 34 -1.</_>
        <_>
          5 1 3 17 2.</_>
        <_>
          8 18 3 17 2.</_></rects>
      <tilted>0</tilted></_>
    <_>
      <rects>
        <_>
          6 1 2 5 -1.</_>
        <_>
          7 1 1 5 2.</_></rects>
      <tilted>0</tilted></_>
    <_>
      <rects>
        <_>
          6 21 11 4 -1.</_>
        <_>
          6 23 11 2 2.</_></rects>
      <tilted>0</tilted></_>
    <_>
      <rects>
        <_>
          7 23 2 9 -1.</_>
        <_>
          7 26 2 3 3.</_></rects>
      <tilted>0</tilted></_>
    <_>
      <rects>
        <_>
          7 30 8 4 -1.</_>
        <_>
          7 32 8 2 2.</_></rects>
      <tilted>0</tilted></_>
    <_>
      <rects>
        <_>
          9 44 13 4 -1.</_>
        <_>
          9 46 13 2 2.</_></rects>
      <tilted>0</tilted></_>
    <_>
      <rects>
        <_>
          12 44 8 4 -1.</_>
        <_>
          12 46 8 2 2.</_></rects>
      <tilted>0</tilted></_>
    <_>
      <rects>
        <_>
          13 11 6 21 -1.</_>
        <_>
          15 11 2 21 3.</_></rects>
      <tilted>0</tilted></_>
    <_>
      <rects>
        <_>
          14 1 6 30 -1.</_>
        <_>
          14 1 3 15 2.</_>
        <_>
          17 16 3 15 2.</_></rects>
      <tilted>0</tilted></_>
    <_>
      <rects>
        <_>
          15 3 4 8 -1.</_>
        <_>
          15 3 2 4 2.</_>
        <_>
          17 7 2 4 2.</_></rects>
      <tilted>0</tilted></_>
    <_>
      <rects>
        <_>
          15 6 9 42 -1.</_>
        <_>
          18 6 3 42 3.</_></rects>
      <tilted>0</tilted></_>
    <_>
      <rects>
        <_>
          16 19 8 2 -1.</_>
        <_>
          20 19 4 2 2.</_></rects>
      <tilted>0</tilted></_>
    <_>
      <rects>
        <_>
          16 29 8 12 -1.</_>
        <_>
          20 29 4 12 2.</_></rects>
      <tilted>0</tilted></_>
    <_>
      <rects>
        <_>
          19 3 2 8 -1.</_>
        <_>
          19 7 2 4 2.</_></rects>
      <tilted>0</tilted></_>
    <_>
      <rects>
        <_>
          20 7 4 9 -1.</_>
        <_>
          22 7 2 9 2.</_></rects>
      <tilted>0</tilted></_></features></cascade>
</opencv_storage>
